digraph Tree {
node [shape=box, style="filled, rounded", color="black", fontname=helvetica] ;
edge [fontname=helvetica] ;
0 [label="HeightCms <= 213.18\nentropy = 2.293\nsamples = 801\nvalue = [145.0, 507.5, 121.0, 119.0, 121.0, 150.0]", fillcolor="#9de5395a"] ;
1 [label="WeightPounds <= 259.5\nentropy = 2.305\nsamples = 719\nvalue = [143.0, 437.5, 84.0, 107.0, 118.0, 142.0]", fillcolor="#9de53955"] ;
0 -> 1 [labeldistance=2.5, labelangle=45, headlabel="True"] ;
2 [label="HeightCms <= 209.55\nentropy = 2.267\nsamples = 654\nvalue = [109.0, 430.5, 81.0, 105.0, 111.0, 125.0]", fillcolor="#9de5395d"] ;
1 -> 2 ;
3 [label="PositionEncoded <= 3.5\nentropy = 2.208\nsamples = 603\nvalue = [93.0, 430.5, 65.0, 95.0, 107.0, 120.0]", fillcolor="#9de53964"] ;
2 -> 3 ;
4 [label="entropy = 2.133\nsamples = 522\nvalue = [69, 413, 63, 70, 99, 103]", fillcolor="#9de5396f"] ;
3 -> 4 ;
5 [label="entropy = 2.334\nsamples = 81\nvalue = [24.0, 17.5, 2.0, 25.0, 8.0, 17.0]", fillcolor="#399de504"] ;
3 -> 5 ;
6 [label="WeightPounds <= 249.561\nentropy = 2.127\nsamples = 51\nvalue = [16, 0, 16, 10, 4, 5]", fillcolor="#e5813900"] ;
2 -> 6 ;
7 [label="entropy = 1.925\nsamples = 36\nvalue = [16, 0, 1, 10, 4, 5]", fillcolor="#e581393b"] ;
6 -> 7 ;
8 [label="entropy = 0.0\nsamples = 15\nvalue = [0, 0, 15, 0, 0, 0]", fillcolor="#39e581ff"] ;
6 -> 8 ;
9 [label="HeightCms <= 207.01\nentropy = 2.008\nsamples = 65\nvalue = [34, 7, 3, 2, 7, 17]", fillcolor="#e5813952"] ;
1 -> 9 ;
10 [label="WeightPounds <= 262.5\nentropy = 1.156\nsamples = 28\nvalue = [21, 0, 1, 2, 4, 0]", fillcolor="#e58139b5"] ;
9 -> 10 ;
11 [label="entropy = 1.5\nsamples = 4\nvalue = [0, 0, 1, 1, 2, 0]", fillcolor="#8139e555"] ;
10 -> 11 ;
12 [label="entropy = 0.658\nsamples = 24\nvalue = [21, 0, 0, 1, 2, 0]", fillcolor="#e58139dc"] ;
10 -> 12 ;
13 [label="WeightPounds <= 266.982\nentropy = 1.964\nsamples = 37\nvalue = [13, 7, 2, 0, 3, 17]", fillcolor="#e5399d23"] ;
9 -> 13 ;
14 [label="entropy = 1.121\nsamples = 23\nvalue = [7, 0, 1, 0, 0, 15]", fillcolor="#e5399d80"] ;
13 -> 14 ;
15 [label="entropy = 2.042\nsamples = 14\nvalue = [6, 7, 1, 0, 3, 2]", fillcolor="#9de53914"] ;
13 -> 15 ;
16 [label="WeightPounds <= 257.5\nentropy = 1.775\nsamples = 82\nvalue = [2, 70, 37, 12, 3, 8]", fillcolor="#9de53959"] ;
0 -> 16 [labeldistance=2.5, labelangle=-45, headlabel="False"] ;
17 [label="WeightPounds <= 244.5\nentropy = 1.795\nsamples = 51\nvalue = [1, 14, 33, 9, 2, 2]", fillcolor="#39e58167"] ;
16 -> 17 ;
18 [label="entropy = 1.173\nsamples = 11\nvalue = [1.0, 3.5, 0.0, 9.0, 0.0, 0.0]", fillcolor="#399de58c"] ;
17 -> 18 ;
19 [label="Seasons in league <= 6.5\nentropy = 1.231\nsamples = 40\nvalue = [0.0, 10.5, 33.0, 0.0, 2.0, 2.0]", fillcolor="#39e5819b"] ;
17 -> 19 ;
20 [label="entropy = 0.469\nsamples = 20\nvalue = [0, 0, 18, 0, 2, 0]", fillcolor="#39e581e3"] ;
19 -> 20 ;
21 [label="entropy = 1.282\nsamples = 20\nvalue = [0.0, 10.5, 15.0, 0.0, 0.0, 2.0]", fillcolor="#39e58143"] ;
19 -> 21 ;
22 [label="HeightCms <= 217.17\nentropy = 1.171\nsamples = 31\nvalue = [1, 56, 4, 3, 1, 6]", fillcolor="#9de539c4"] ;
16 -> 22 ;
23 [label="entropy = 0.664\nsamples = 23\nvalue = [0, 56, 0, 3, 1, 3]", fillcolor="#9de539e1"] ;
22 -> 23 ;
24 [label="entropy = 1.406\nsamples = 8\nvalue = [1, 0, 4, 0, 0, 3]", fillcolor="#39e58133"] ;
22 -> 24 ;
}